-1.290156245231628418e-01
3.958552777767181396e-01
-5.257345438003540039e-01
-3.937245309352874756e-01
-3.689565360546112061e-01
-1.020973324775695801e-01
1.529719680547714233e-01
-2.130945175886154175e-01
3.421467542648315430e-01
4.288759231567382812e-01
2.250388860702514648e-01
3.823841214179992676e-01
-1.001578196883201599e-01
2.350279092788696289e-01
3.229184746742248535e-01
1.141050010919570923e-01
3.774153068661689758e-02
-4.121240228414535522e-03
-2.320203036069869995e-01
1.832895725965499878e-02
5.634529516100883484e-02
-1.221731826663017273e-01
-7.704976201057434082e-02
-4.831983745098114014e-01
-1.437087059020996094e-01
-4.343240335583686829e-02
-4.252736270427703857e-01
1.097696274518966675e-01
-5.113734304904937744e-02
-4.273471236228942871e-01
9.370739758014678955e-02
3.323756456375122070e-01
4.986739456653594971e-01
-3.887538015842437744e-01
-2.162748277187347412e-01
3.613542914390563965e-01
4.056280851364135742e-01
4.413748979568481445e-01
4.560227096080780029e-01
-5.161852240562438965e-01
-2.676076889038085938e-01
-2.697205245494842529e-01
-4.266696572303771973e-01
1.520847082138061523e-01
4.670682251453399658e-01
3.236591517925262451e-01
2.490211129188537598e-01
3.190737962722778320e-01
3.239099169149994850e-04
-3.001000881195068359e-01
-7.164395600557327271e-02
1.515961438417434692e-01
1.603635102510452271e-01
-2.365185320377349854e-01
-2.436065077781677246e-01
1.922940313816070557e-01
1.158623173832893372e-01
-5.260956939309835434e-03
-1.071990579366683960e-01
-2.681794464588165283e-01
-5.962853785604238510e-03
-6.484135240316390991e-02
2.628991305828094482e-01
6.642562150955200195e-02
-3.576287925243377686e-01
7.724095135927200317e-02
-4.634458124637603760e-01
-2.668869495391845703e-01
-2.995968610048294067e-02
2.425722926855087280e-01
1.247172057628631592e-01
-1.534404605627059937e-02
1.405145078897476196e-01
-3.214289247989654541e-01
-2.989231944084167480e-01
4.279839992523193359e-01
-1.985643357038497925e-01
1.410732120275497437e-01
1.061034761369228363e-02
-4.808737635612487793e-01
-4.553971886634826660e-01
-2.865934073925018311e-01
2.851002812385559082e-01
-1.083361357450485229e-01
-3.145205378532409668e-01
3.522078990936279297e-01
2.921017408370971680e-01
-3.120463192462921143e-01
-5.079825520515441895e-01
2.284310609102249146e-01
-3.009809255599975586e-01
-5.473669990897178650e-02
-3.346444666385650635e-01
2.750596404075622559e-01
1.341639608144760132e-01
-5.567680597305297852e-01
-2.508700191974639893e-01
2.279003858566284180e-01
2.549943886697292328e-02
1.882182657718658447e-01
-8.281835913658142090e-02
3.163988888263702393e-02
4.112311899662017822e-01
8.329024165868759155e-02
5.418577194213867188e-01
9.162963926792144775e-02
3.033326566219329834e-02
-1.035049483180046082e-01
-3.846035897731781006e-01
-3.413925468921661377e-01
-4.195072054862976074e-01
2.562134265899658203e-01
3.834902048110961914e-01
3.848283886909484863e-01
-2.463618069887161255e-01
4.991496447473764420e-03
-1.961379498243331909e-01
1.190467104315757751e-01
3.775535523891448975e-01
4.393776655197143555e-01
5.274137258529663086e-01
-3.149948716163635254e-01
-9.075240790843963623e-02
9.434300661087036133e-02
-4.037705063819885254e-01
1.320136487483978271e-01
-3.973946273326873779e-01
-3.491417765617370605e-01
-1.954256594181060791e-01
2.185690253973007202e-01
5.250659584999084473e-01
2.390044182538986206e-01
3.658510446548461914e-01
3.457405418157577515e-02
-1.225296482443809509e-01
1.529263854026794434e-01
-2.994587719440460205e-01
-2.889675796031951904e-01
4.662938714027404785e-01
-1.912366449832916260e-01
1.026247367262840271e-01
-1.830723732709884644e-01
2.430631518363952637e-01
3.889819383621215820e-01
1.899201050400733948e-02
-8.582123368978500366e-02
1.072921901941299438e-01
2.162914872169494629e-01
3.060530126094818115e-01
3.386869132518768311e-01
-4.851891994476318359e-01
-4.210502840578556061e-03
3.898370563983917236e-01
3.647042512893676758e-01
8.522661775350570679e-02
2.782812714576721191e-01
-5.757780075073242188e-01
-1.724687218666076660e-02
2.952422797679901123e-01
3.302290737628936768e-01
3.587415814399719238e-01
-2.466911375522613525e-01
-4.110450148582458496e-01
5.630812644958496094e-01
-4.264699816703796387e-01
-4.356152117252349854e-01
-1.956193894147872925e-02
9.059580042958259583e-03
-5.637136101722717285e-01
-1.431240607053041458e-02
-3.359770402312278748e-02
2.095024734735488892e-01
2.375241601839661598e-03
-2.011352479457855225e-01
3.350538015365600586e-01
-2.968257367610931396e-01
-3.572934865951538086e-02
1.060590296983718872e-01
-1.173513662070035934e-02
-2.959099113941192627e-01
-2.439787387847900391e-01
-4.721781313419342041e-01
2.339996844530105591e-01
4.137581586837768555e-01
-2.229209989309310913e-01
-5.262503027915954590e-02
8.057177066802978516e-02
-5.579970777034759521e-02
3.068616688251495361e-01
1.610200405120849609e-01
-2.240184992551803589e-01
-3.540636897087097168e-01
-4.539110362529754639e-01
2.955968081951141357e-01
-5.859357118606567383e-01
-1.803742498159408569e-01
2.574062943458557129e-01
-1.450779885053634644e-01
-2.677830457687377930e-01
-3.175352811813354492e-01
1.263887435197830200e-01
-2.082206904888153076e-01
2.191375792026519775e-01
-1.033539548516273499e-01
1.913427859544754028e-01
-1.999087780714035034e-01
-3.333978652954101562e-01
-3.272971510887145996e-01
1.402469631284475327e-02
3.439666032791137695e-01
-4.253919422626495361e-02
-3.522205054759979248e-01
-1.187018901109695435e-01
-2.983470559120178223e-01
-1.157162860035896301e-01
1.327712386846542358e-01
4.409749507904052734e-01
2.169775068759918213e-01
4.158727824687957764e-01
-4.463143944740295410e-01
2.980193197727203369e-01
3.506935834884643555e-01
1.915044337511062622e-01
2.693643271923065186e-01
-1.653196662664413452e-01
1.353377848863601685e-01
-1.068975478410720825e-01
-4.019843637943267822e-01
-1.048449054360389709e-01
-4.191317409276962280e-02
3.327497243881225586e-01
-4.387564957141876221e-01
-2.918791957199573517e-02
1.709081977605819702e-01
2.498479336500167847e-01
-1.212693750858306885e-01
2.427987754344940186e-01
2.584792077541351318e-01
2.374343760311603546e-02
1.488768607378005981e-01
-4.741926491260528564e-02
4.016812443733215332e-01
4.584641456604003906e-01
-2.746985554695129395e-01
4.990727007389068604e-01
-1.280910819768905640e-01
4.956114888191223145e-01
3.522354066371917725e-01
-2.216331660747528076e-01
-2.831165492534637451e-01
-4.489485919475555420e-01
-1.576616466045379639e-01
1.493309531360864639e-02
-3.874228894710540771e-01
1.475415825843811035e-01
-2.625216543674468994e-01
