-8.282712101936340332e-01 -9.730889201164245605e-01 3.127965033054351807e-01 1.766532361507415771e-01 -9.854406118392944336e-01 7.317071780562400818e-03 -6.702822446823120117e-02 -4.435523748397827148e-01 -7.346326112747192383e-01 -2.245669066905975342e-01 -9.228397905826568604e-02 2.375597208738327026e-01 9.456601738929748535e-02 5.378752946853637695e-01 2.540861666202545166e-01 2.895859181880950928e-01 -5.528973937034606934e-01 4.008007645606994629e-01 2.452499270439147949e-01 1.831943392753601074e-01 -3.456231951713562012e-01 -6.662402153015136719e-01 -3.974038064479827881e-01 -4.170884490013122559e-01 -3.136008083820343018e-01 -2.738348245620727539e-01 5.387076642364263535e-03 -3.114060871303081512e-02 3.616548478603363037e-01 3.557395190000534058e-02 5.312892794609069824e-01 -3.421300351619720459e-01 2.218928337097167969e-01 -7.268554568290710449e-01 1.493525952100753784e-01 2.045968323945999146e-01 2.542116343975067139e-01 -5.273548364639282227e-01 -2.929545342922210693e-01 -2.309035360813140869e-01 1.638982146978378296e-01 -3.457196056842803955e-01 2.574723362922668457e-01 3.057223856449127197e-01 -3.890961408615112305e-01 -6.006128154695034027e-03 3.629500567913055420e-01 -1.638678461313247681e-01 -3.048148751258850098e-01 -7.296047359704971313e-02 -7.468153834342956543e-01 5.933654904365539551e-01 -1.631436049938201904e-01 -7.588189840316772461e-02 1.322358194738626480e-02 -3.916931450366973877e-01 2.466599941253662109e-01 -2.749103009700775146e-01 3.967788219451904297e-01 -5.293678045272827148e-01 3.777324557304382324e-01 -5.150728821754455566e-01 -2.583118379116058350e-01 5.291914939880371094e-02 -1.980664283037185669e-01 1.075185611844062805e-01 2.277358621358871460e-01 3.092607855796813965e-01 -1.027742743492126465e+00 1.485952287912368774e-01 -6.609646975994110107e-02 2.782704830169677734e-01 5.198752284049987793e-01 -5.076444745063781738e-01 -1.655769199132919312e-01 -6.760246753692626953e-01 8.793527632951736450e-02 -3.600368499755859375e-01 -1.135874986648559570e+00 5.849998444318771362e-02 -8.160051889717578888e-03 2.934019640088081360e-02 3.284256458282470703e-01 5.031058192253112793e-01 -4.273375570774078369e-01 8.369829738512635231e-04 1.874529570341110229e-01 -3.640593495219945908e-03 1.022969558835029602e-01 -6.505201011896133423e-02 5.351944565773010254e-01 7.006984204053878784e-02 8.466845750808715820e-02 2.948233671486377716e-02 -1.849320679903030396e-01 -9.611592441797256470e-02 -9.481262415647506714e-03 3.283093869686126709e-01 -4.873674213886260986e-01 1.169198974967002869e-01 6.509537249803543091e-02 -2.130062133073806763e-01 -1.173422485589981079e-01 -2.379172295331954956e-01 -3.101418018341064453e-01 -7.186667919158935547e-01 -1.316606998443603516e-01 -5.574119687080383301e-01 4.255373477935791016e-01 3.731276094913482666e-01 -4.441675264388322830e-03 -3.087436966598033905e-02 -1.511894073337316513e-02 -3.280820846557617188e-01 -7.059195637702941895e-01 2.211678475141525269e-01 1.802905499935150146e-01 7.882037758827209473e-01 -1.822024136781692505e-01 -3.133260011672973633e-01 5.299623012542724609e-01 -5.146802663803100586e-01 8.727038651704788208e-02 1.164539679884910583e-01 3.228315412998199463e-01 -6.716869026422500610e-02 3.568260371685028076e-01 -4.624492228031158447e-01 5.015799999237060547e-01 -3.994885385036468506e-01 -2.450350522994995117e-01 8.785602450370788574e-02 1.628842502832412720e-01 -3.887324631214141846e-01 -2.277026772499084473e-01 -2.923676073551177979e-01 2.228473275899887085e-01 -4.023132920265197754e-01 3.592590987682342529e-01 -1.096371784806251526e-01 5.258473157882690430e-01 7.997686266899108887e-01 -3.174501657485961914e-01 -1.891907453536987305e-01 -4.278342705219984055e-03 -9.847427010536193848e-01 -1.185261383652687073e-01 -1.499063223600387573e-01 -1.593283005058765411e-02 8.248355984687805176e-01 6.528939604759216309e-01 5.125508308410644531e-01 -6.219996809959411621e-01 -1.822338253259658813e-01 -8.079195022583007812e-01 4.393981099128723145e-01 -7.004384398460388184e-01 4.101759195327758789e-02 1.888324767351150513e-01 -2.312649339437484741e-01 2.057977914810180664e-01 -3.502176105976104736e-01 -5.284590125083923340e-01 -3.678629398345947266e-01 -6.163673009723424911e-03 -4.285874664783477783e-01 -7.859720848500728607e-03 -8.119493126869201660e-01 -3.080158233642578125e-01 -5.735025182366371155e-02 -6.763377785682678223e-01 -5.367717742919921875e-01 1.143720075488090515e-01 3.194077908992767334e-01 2.012505680322647095e-01 4.199293553829193115e-01 -3.550238907337188721e-02 -7.774677276611328125e-01 9.175688959658145905e-03 -1.657732576131820679e-01 2.788889110088348389e-01 -4.695022702217102051e-01 1.029537171125411987e-01 -1.929999887943267822e-01 -7.363482117652893066e-01 -5.825706124305725098e-01 4.991866648197174072e-01 -2.491633892059326172e-01 -2.139880955219268799e-01 -2.128518885001540184e-03 -2.197299897670745850e-01 4.468059837818145752e-01 5.501454696059226990e-02 2.320808172225952148e-01 -5.072172880172729492e-01 1.774105280637741089e-01 -4.938260912895202637e-01 -8.876905590295791626e-02 6.621503084897994995e-02 -6.060936674475669861e-02 5.612961202859878540e-02 3.220406472682952881e-01 1.786692291498184204e-01 -7.655643820762634277e-01 1.489390730857849121e-01 -3.075254857540130615e-01 -1.700415909290313721e-01 -3.355946838855743408e-01 -1.904532313346862793e-01 2.773767113685607910e-01 -2.692162990570068359e-01 2.018141746520996094e-01 -1.310873031616210938e-01 -1.501639187335968018e-01 -3.721040189266204834e-01 3.513814806938171387e-01 -2.378529310226440430e-01 -8.671045899391174316e-01 1.209315657615661621e-01 6.998254358768463135e-02 -8.318706750869750977e-01 -4.762305915355682373e-01 -4.803746044635772705e-01 -6.268630623817443848e-01 -6.131414771080017090e-01 7.757527828216552734e-01 -5.110867023468017578e-01 -5.196939110755920410e-01 1.595697402954101562e-01 -7.273010909557342529e-02 4.208194017410278320e-01 -5.888593196868896484e-01 -1.779670417308807373e-01 1.750499755144119263e-01 1.815926581621170044e-01 4.239605665206909180e-01 4.672761261463165283e-01 -5.494249463081359863e-01 -1.339302659034729004e-01 3.842141330242156982e-01 -4.772207140922546387e-01 -9.602294862270355225e-02 -5.379582643508911133e-01 -2.863072156906127930e-01 3.099817633628845215e-01 1.130976453423500061e-01 1.042905822396278381e-01 1.604086905717849731e-01 6.088399328291416168e-03 -8.901057243347167969e-01 2.001782953739166260e-01 -2.791443467140197754e-01 1.412781029939651489e-01 -2.616487443447113037e-01 3.434899449348449707e-01 5.061001181602478027e-01
1.569957435131072998e-01 -6.937068700790405273e-01 -3.398744165897369385e-01 4.822161793708801270e-01 -1.671895235776901245e-01 -3.025456368923187256e-01 -5.657781362533569336e-01 -5.073423981666564941e-01 -1.763160675764083862e-01 -5.762799978256225586e-01 -3.865851759910583496e-01 2.599540948867797852e-01 -5.155438780784606934e-01 6.169295310974121094e-01 1.086251959204673767e-01 -3.889090418815612793e-01 -3.599147871136665344e-02 4.182074964046478271e-02 1.087227389216423035e-01 8.899175375699996948e-02 -3.840281665325164795e-01 -3.561480641365051270e-01 -1.980267465114593506e-01 4.348984062671661377e-01 -2.968713939189910889e-01 7.302547991275787354e-02 -4.163201749324798584e-01 1.330238580703735352e-01 -2.411815105006098747e-03 4.825748503208160400e-02 -7.351622581481933594e-01 3.623542487621307373e-01 -1.991264224052429199e-01 3.984315097332000732e-01 -2.855824530124664307e-01 1.418673992156982422e-01 -1.045418307185173035e-01 8.029562979936599731e-02 2.448082417249679565e-01 -5.413904786109924316e-02 -4.478484094142913818e-01 -1.253899037837982178e-01 -2.999729216098785400e-01 2.500313520431518555e-01 -3.697592318058013916e-01 4.932275116443634033e-01 3.921787142753601074e-01 2.491040825843811035e-01 4.518157839775085449e-01 2.979417443275451660e-01 2.381219416856765747e-01 -6.529745459556579590e-01 -7.342786192893981934e-01 -4.160454571247100830e-01 -3.359048664569854736e-01 -1.404565572738647461e-01 -2.865254580974578857e-01 -2.902472913265228271e-01 -6.225279532372951508e-03 -4.398109912872314453e-01 -3.329645693302154541e-01 1.041629761457443237e-01 -3.195048123598098755e-02 -8.367101848125457764e-02 -4.321788251399993896e-01 1.152539253234863281e-01 -4.973309338092803955e-01 -2.971972227096557617e-01 -7.401217818260192871e-01 -1.862089782953262329e-01 -2.536141872406005859e-01 -4.617198929190635681e-02 1.573204100131988525e-01 -6.727162003517150879e-01 -4.106049835681915283e-01 2.888757586479187012e-01 -3.030854761600494385e-01 4.847310483455657959e-01 -6.066711544990539551e-01 -5.811175107955932617e-01 6.554477214813232422e-01 -9.637153744697570801e-01 -6.419153809547424316e-01 -7.601986527442932129e-01 -2.983965873718261719e-01 -6.049016118049621582e-01 -6.251907944679260254e-01 -7.561372518539428711e-01 -4.736866056919097900e-01 1.289943456649780273e-01 -4.494401812553405762e-02 -1.697080582380294800e-01 9.303897619247436523e-01 5.136697888374328613e-01 -2.527123391628265381e-01 -3.127104640007019043e-01 3.689860403537750244e-01 5.662526488304138184e-01 -4.895520210266113281e-01 3.449100255966186523e-01 1.572013646364212036e-01 1.304803192615509033e-01 -1.857081800699234009e-01 -2.375337993726134300e-03 4.504308998584747314e-01 -7.740059494972229004e-01 7.473084330558776855e-01 9.026695042848587036e-02 1.245308388024568558e-02 -1.910278201103210449e-01 2.265927046537399292e-01 2.283682227134704590e-01 2.481702901422977448e-02 4.649879336357116699e-01 -1.529800742864608765e-01 4.431732296943664551e-01 -7.116823792457580566e-01 2.932181656360626221e-01 -3.351977169513702393e-01 -7.775912284851074219e-01 7.040224671363830566e-01 6.016234308481216431e-02 -3.687973618507385254e-01 3.235618174076080322e-01 3.502571955323219299e-02 -3.056150376796722412e-01 6.702286601066589355e-01 3.037851862609386444e-02 3.205037117004394531e-01 -3.413045704364776611e-01 9.967593550682067871e-01 -5.269619226455688477e-01 -8.654854893684387207e-01 -4.243524074554443359e-01 -1.857113279402256012e-02 4.314708411693572998e-01 -1.082681655883789062e+00 2.082695364952087402e-01 -8.165508508682250977e-02 3.951607644557952881e-02 2.232582122087478638e-01 -3.556484878063201904e-01 1.801723986864089966e-01 -5.089925527572631836e-01 -3.148044347763061523e-01 -1.742884218692779541e-01 4.831889271736145020e-01 2.287474572658538818e-01 3.000595569610595703e-01 -5.521603226661682129e-01 -1.739219427108764648e-01 -6.131925582885742188e-01 1.972866207361221313e-01 2.054057419300079346e-01 9.556182660162448883e-03 -1.692674309015274048e-01 1.317388713359832764e-01 -5.287399291992187500e-01 4.832269847393035889e-01 8.585678935050964355e-01 1.911416351795196533e-01 9.360436350107192993e-02 -5.512738227844238281e-01 5.298619866371154785e-01 2.573600113391876221e-01 2.222536951303482056e-01 -5.572101473808288574e-01 -7.379428744316101074e-01 -4.475568532943725586e-01 5.335251092910766602e-01 -3.561124503612518311e-01 9.818711876869201660e-01 -3.126361966133117676e-01 2.978189289569854736e-01 -9.798287600278854370e-02 -2.157530784606933594e-01 -6.244884729385375977e-01 1.187273338437080383e-01 -1.719535738229751587e-01 7.182691097259521484e-01 -2.966636717319488525e-01 -3.257997632026672363e-01 -4.521614909172058105e-01 2.328411340713500977e-01 2.290502376854419708e-02 2.619585692882537842e-01 -3.543602228164672852e-01 -4.662131369113922119e-01 4.473292529582977295e-01 6.897597908973693848e-01 4.133734107017517090e-01 -5.474169254302978516e-01 1.354871541261672974e-01 -4.979498088359832764e-01 2.497997879981994629e-01 3.395999670028686523e-01 -3.800191357731819153e-02 -5.418428182601928711e-01 -1.622748970985412598e-01 -1.535448282957077026e-01 -3.506436645984649658e-01 -7.837126255035400391e-01 1.246177181601524353e-01 -2.884316444396972656e-01 -5.660576224327087402e-01 -1.816201657056808472e-01 -1.105187535285949707e-01 -2.552273869514465332e-01 3.082443177700042725e-01 -2.616455852985382080e-01 3.707719743251800537e-01 -2.410241216421127319e-01 -3.255031704902648926e-01 2.551116421818733215e-02 3.635631799697875977e-01 -5.810334086418151855e-01 -6.544015407562255859e-01 -5.827347636222839355e-01 -2.928235828876495361e-01 -8.327280730009078979e-02 4.281283617019653320e-01 4.322359859943389893e-01 1.375409495085477829e-02 -6.341715455055236816e-01 -3.496143221855163574e-01 9.113591164350509644e-02 3.060810267925262451e-01 -6.846070885658264160e-01 -3.606455028057098389e-02 6.668476462364196777e-01 2.570389807224273682e-01 2.861010730266571045e-01 -8.512177318334579468e-02 -4.017679691314697266e-01 3.075305521488189697e-01 -3.143090903759002686e-01 2.356355488300323486e-01 -6.670649349689483643e-02 5.899356007575988770e-01 -3.050964772701263428e-01 2.311490625143051147e-01 9.855184704065322876e-02 9.801922738552093506e-02 8.125062286853790283e-02 5.959763526916503906e-01 2.663865983486175537e-01 -5.290860533714294434e-01 6.169682741165161133e-01 -1.677357107400894165e-01 -2.335517406463623047e-01 3.844617903232574463e-01 3.310674726963043213e-01 -6.345093250274658203e-01 -4.827074408531188965e-01 -2.581485807895660400e-01 1.320712268352508545e-01
-9.585119038820266724e-02 -1.161101013422012329e-01 3.846241533756256104e-01 4.300176203250885010e-01 -1.398630589246749878e-01 -2.086604386568069458e-01 1.799165643751621246e-02 -1.085552498698234558e-01 -1.060570478439331055e+00 2.840219996869564056e-02 1.024683862924575806e-01 -1.264478266239166260e-01 -8.964908123016357422e-01 -6.994460523128509521e-02 -7.576516270637512207e-01 -1.261138081550598145e+00 -7.215330004692077637e-01 2.550034523010253906e-01 -5.381809920072555542e-02 3.524821400642395020e-01 -3.183416724205017090e-01 -9.898995161056518555e-01 4.764100015163421631e-01 1.640972793102264404e-01 -2.784374654293060303e-01 1.223396658897399902e+00 -2.303041517734527588e-01 7.191970944404602051e-02 -5.994219779968261719e-01 4.961457550525665283e-01 3.144426941871643066e-01 4.267459213733673096e-01 -1.805155575275421143e-01 3.385779913514852524e-03 2.607652246952056885e-01 -9.014291167259216309e-01 -4.282255843281745911e-02 -1.185446009039878845e-01 1.591795086860656738e-01 -2.225586175918579102e-01 -3.674240708351135254e-01 7.955026030540466309e-01 6.107221841812133789e-01 -4.638308882713317871e-01 -6.128352880477905273e-01 -4.319221377372741699e-01 -2.463538050651550293e-01 -1.949964016675949097e-01 -7.409834116697311401e-02 4.257787466049194336e-01 -1.008589744567871094e+00 -9.460299015045166016e-01 -4.811405539512634277e-01 4.405038058757781982e-01 -2.498528547585010529e-02 3.875007629394531250e-01 -7.205771654844284058e-02 4.248788654804229736e-01 -3.361351555213332176e-03 8.048775792121887207e-01 3.378930687904357910e-02 -5.889053344726562500e-01 5.146723389625549316e-01 -2.795046567916870117e-01 3.263786435127258301e-01 1.118379756808280945e-01 8.781086802482604980e-01 4.644443094730377197e-01 -8.251944929361343384e-02 -3.022716939449310303e-01 3.053377568721771240e-01 -2.298067323863506317e-02 -7.899929881095886230e-01 8.652125000953674316e-01 -2.067025899887084961e-01 2.136054635047912598e-01 -5.098322406411170959e-03 -2.946057915687561035e-01 9.423483908176422119e-02 3.748820424079895020e-01 4.134741723537445068e-01 -8.763229846954345703e-01 1.367165595293045044e-01 1.674620062112808228e-01 3.183288574218750000e-01 4.977267980575561523e-01 6.067820191383361816e-01 4.276939332485198975e-01 8.387300372123718262e-01 -5.858189463615417480e-01 -6.119121313095092773e-01 4.030150473117828369e-01 1.117799058556556702e-01 3.297468423843383789e-01 -3.418590724468231201e-01 -2.246105223894119263e-01 -4.917277395725250244e-01 -3.911637961864471436e-01 -7.804532349109649658e-02 8.536159992218017578e-01 -4.032209813594818115e-01 -2.253698706626892090e-01 -5.048071965575218201e-02 2.196274101734161377e-01 7.307519316673278809e-01 -9.479738473892211914e-01 6.280903220176696777e-01 -3.061328530311584473e-01 1.630429774522781372e-01 5.661997795104980469e-01 1.569299101829528809e-01 -6.174579262733459473e-01 -1.803269684314727783e-01 1.698523610830307007e-01 -1.827120035886764526e-01 3.997582197189331055e-02 -4.170275926589965820e-01 -9.995758533477783203e-01 -1.013277098536491394e-01 3.617242723703384399e-02 -4.853852391242980957e-01 -8.289144039154052734e-01 3.270115554332733154e-01 -1.093484163284301758e+00 -1.161279559135437012e+00 6.375535726547241211e-01 -8.609018325805664062e-01 -3.442743718624114990e-01 -4.436478763818740845e-02 2.205062210559844971e-01 -4.013269841670989990e-01 2.382704615592956543e-01 -1.788515746593475342e-01 -8.082111477851867676e-01 -3.038826584815979004e-01 -3.210229873657226562e-01 5.304616689682006836e-01 -2.298109978437423706e-02 -4.559239447116851807e-01 -1.974149048328399658e-02 -2.047193795442581177e-01 -2.898232340812683105e-01 -4.407831430435180664e-01 -5.935036018490791321e-02 -8.957985043525695801e-02 -8.320879191160202026e-03 -3.002106770873069763e-02 3.152895569801330566e-01 -5.180789157748222351e-02 1.839361041784286499e-01 -6.539208292961120605e-01 -1.263236999511718750e-02 -3.667746782302856445e-01 -5.267460346221923828e-01 -5.068990215659141541e-02 7.531895041465759277e-01 -6.447252631187438965e-01 -1.423670053482055664e-01 -5.382473468780517578e-01 1.300572752952575684e-01 -5.782416462898254395e-01 4.191445410251617432e-01 -6.040382385253906250e-01 -5.055297613143920898e-01 -3.987575471401214600e-01 -1.258456110954284668e-01 -3.056240975856781006e-01 -5.025858283042907715e-01 7.036224007606506348e-01 7.948132157325744629e-01 -6.997469663619995117e-01 -3.647429645061492920e-01 -4.285485446453094482e-01 2.668026089668273926e-01 6.395149230957031250e-01 -2.531862854957580566e-01 -1.049645423889160156e+00 1.474199742078781128e-01 4.927078187465667725e-01 3.945854604244232178e-01 -3.137358725070953369e-01 -1.874244064092636108e-01 1.643750518560409546e-01 -1.254987269639968872e-01 8.114268779754638672e-01 -2.230452746152877808e-01 -5.558085441589355469e-01 2.667962200939655304e-02 9.553082287311553955e-02 1.718441396951675415e-02 -4.742596670985221863e-02 8.712909221649169922e-01 4.584430530667304993e-02 1.484462320804595947e-01 1.657969057559967041e-01 -8.482280373573303223e-01 -5.802099108695983887e-01 -2.686157524585723877e-01 6.690835356712341309e-01 -3.499669432640075684e-01 -5.772140866611152887e-06 -3.690099120140075684e-01 3.005651831626892090e-01 4.208773076534271240e-01 -2.848927974700927734e-01 -3.527009487152099609e-01 3.062886297702789307e-01 1.644938588142395020e-01 4.634223580360412598e-01 4.776949435472488403e-02 3.668133616447448730e-01 -3.121626079082489014e-01 3.218049407005310059e-01 -1.570329815149307251e-01 2.923435866832733154e-01 -4.546102881431579590e-01 -3.069185912609100342e-01 -5.308559536933898926e-01 9.126373380422592163e-02 -1.849378459155559540e-02 -9.186373353004455566e-01 4.973974227905273438e-01 7.130626440048217773e-01 1.841855347156524658e-01 1.131698116660118103e-01 1.307603240013122559e+00 -3.989613652229309082e-01 -1.126367747783660889e-01 3.961614072322845459e-01 9.870988875627517700e-02 6.118400767445564270e-02 -4.280770719051361084e-01 -1.649288535118103027e-01 4.202719777822494507e-03 4.828781187534332275e-01 1.967263072729110718e-01 5.084369182586669922e-01 1.021293699741363525e-01 7.920008897781372070e-02 1.270041316747665405e-01 -6.897066719830036163e-03 7.696298956871032715e-01 8.425620198249816895e-01 -8.191232085227966309e-01 3.000194132328033447e-01 8.162697553634643555e-01 2.369392216205596924e-01 1.992388665676116943e-01 -4.326772689819335938e-01 -3.123679459095001221e-01 1.727020144462585449e-01 1.019451767206192017e-01 1.614174544811248779e-01 -3.822523653507232666e-01 -3.656061366200447083e-02 -8.768655657768249512e-01
-9.034326672554016113e-01 4.401944577693939209e-01 4.707950651645660400e-01 -1.203374587930738926e-03 3.068686127662658691e-01 5.774813294410705566e-01 -6.977049708366394043e-01 -9.722717851400375366e-02 1.305770158767700195e+00 -9.469678997993469238e-01 -2.770439386367797852e-01 2.388522177934646606e-01 1.216716095805168152e-01 -4.138664603233337402e-01 6.124106645584106445e-01 2.900970876216888428e-01 -5.131731629371643066e-01 1.895605325698852539e-01 4.557749927043914795e-01 -2.016809731721878052e-01 -1.022787950932979584e-02 6.794858574867248535e-01 -1.318041533231735229e-01 8.835532665252685547e-01 7.237210273742675781e-01 -8.277085423469543457e-01 2.088195979595184326e-01 4.661681652069091797e-01 -5.567799210548400879e-01 -1.505750715732574463e-01 1.605214476585388184e-01 -6.505405902862548828e-02 -2.921653352677822113e-02 1.238109245896339417e-01 4.664119482040405273e-01 -1.251813769340515137e+00 -3.509114384651184082e-01 3.704530894756317139e-01 4.587957561016082764e-01 2.404173612594604492e-01 -1.481991887092590332e+00 6.015909314155578613e-01 5.247557759284973145e-01 -4.877757728099822998e-01 2.496116794645786285e-02 1.081954121589660645e+00 3.125368654727935791e-01 -4.330534338951110840e-01 -5.756008028984069824e-01 -1.006937861442565918e+00 5.306745693087577820e-02 -6.585366129875183105e-01 4.278567135334014893e-01 -1.119857072830200195e+00 -4.612897634506225586e-01 -5.821064114570617676e-01 -1.457822918891906738e+00 1.667630821466445923e-01 -1.022481679916381836e+00 -5.149962306022644043e-01 2.945812642574310303e-01 -2.155486866831779480e-02 -2.817415073513984680e-02 5.267684459686279297e-01 2.727693915367126465e-01 7.124782204627990723e-01 -1.736188232898712158e-01 2.640156745910644531e-01 -5.119762420654296875e-01 -3.463355125859379768e-03 4.497944116592407227e-01 4.884054064750671387e-01 -1.649229601025581360e-02 -9.355003237724304199e-01 -4.561791718006134033e-01 -3.812161460518836975e-02 2.418413609266281128e-01 2.655367255210876465e-01 -3.092702031135559082e-01 4.487198591232299805e-01 -5.795840024948120117e-01 -9.677883386611938477e-01 -6.639922857284545898e-01 5.479270815849304199e-01 1.842827647924423218e-01 3.426404297351837158e-01 -2.075627893209457397e-01 -3.589130938053131104e-01 -1.892622709274291992e-01 -6.662690639495849609e-01 -3.042485937476158142e-02 -6.876792311668395996e-01 4.272728860378265381e-01 -2.545733451843261719e-01 1.644762307405471802e-01 1.118725836277008057e-01 -3.387847542762756348e-01 -5.126962661743164062e-01 1.763923168182373047e-01 -3.079197406768798828e-01 -2.990578711032867432e-01 -8.575091958045959473e-01 -8.796724081039428711e-01 -8.953667283058166504e-01 2.646313011646270752e-01 -2.149518132209777832e-01 -3.886689841747283936e-01 -8.256825059652328491e-02 -3.846040070056915283e-01 -7.059838622808456421e-02 -2.347465306520462036e-01 -6.977873444557189941e-01 3.701398074626922607e-01 -4.452165365219116211e-01 1.448791101574897766e-02 -6.845781207084655762e-01 3.141765296459197998e-01 -3.259879350662231445e-01 3.404879570007324219e-01 5.079379081726074219e-01 -3.331084549427032471e-01 5.566346645355224609e-01 -2.208505123853683472e-01 7.437302917242050171e-02 -6.419292092323303223e-01 -3.700046837329864502e-01 5.960918068885803223e-01 2.750314176082611084e-01 1.840445101261138916e-01 -7.001759111881256104e-02 4.402527213096618652e-02 3.252804279327392578e-02 -8.971548676490783691e-01 -3.591877818107604980e-01 9.161186814308166504e-01 -5.376734137535095215e-01 -9.820353239774703979e-02 -5.540279150009155273e-01 5.863833427429199219e-01 -2.240020930767059326e-01 -9.890671074390411377e-02 5.407155752182006836e-01 -2.732889167964458466e-02 -3.276437222957611084e-01 -6.720443814992904663e-02 3.859636187553405762e-01 -6.484079957008361816e-01 1.025129556655883789e+00 -4.084581136703491211e-01 2.633426189422607422e-01 -3.836428523063659668e-01 2.672007381916046143e-01 -7.930069565773010254e-01 -4.278645217418670654e-01 1.720838807523250580e-02 1.455325186252593994e-01 1.999717205762863159e-01 3.404483795166015625e-01 -4.473562240600585938e-01 -4.653174877166748047e-01 -6.319158673286437988e-01 -2.337462007999420166e-01 -2.611852288246154785e-01 -4.506711065769195557e-01 -9.940183907747268677e-02 -6.188087537884712219e-02 -4.030522704124450684e-01 -2.876274883747100830e-01 8.184963464736938477e-02 8.050748705863952637e-02 -5.407007932662963867e-01 -1.701624691486358643e-01 4.082096274942159653e-03 2.729453742504119873e-01 -1.395643204450607300e-01 2.617099881172180176e-01 -5.960524082183837891e-01 -1.378138959407806396e-01 2.044586986303329468e-01 -7.469281554222106934e-01 -5.111265778541564941e-01 -6.305303573608398438e-01 1.502692550420761108e-01 -5.661843419075012207e-01 -4.079389199614524841e-02 -9.528417885303497314e-02 -1.229259595274925232e-01 -3.371774554252624512e-01 7.062458898872137070e-04 -3.335556387901306152e-01 -5.808016657829284668e-01 -1.907388567924499512e-01 -4.738214612007141113e-01 1.773240119218826294e-01 1.289700716733932495e-01 3.355561792850494385e-01 7.721567153930664062e-01 6.123427748680114746e-01 3.425469100475311279e-01 5.251957178115844727e-01 -5.777369737625122070e-01 2.412219494581222534e-01 4.455157518386840820e-01 -6.470706462860107422e-01 -8.307386636734008789e-01 -3.496746718883514404e-02 8.655696511268615723e-01 3.839098811149597168e-01 1.886483579874038696e-01 -3.872232884168624878e-02 -7.191562652587890625e-01 2.144059538841247559e-01 -1.270813941955566406e-01 6.303081512451171875e-01 -5.958553552627563477e-01 9.663792848587036133e-01 5.759471058845520020e-01 1.630591973662376404e-02 -1.871471107006072998e-01 -7.267561554908752441e-02 8.448487520217895508e-01 -1.132623553276062012e+00 7.152748703956604004e-01 6.208703517913818359e-01 1.923600211739540100e-02 -4.095247089862823486e-01 -5.756598114967346191e-01 -4.865548908710479736e-01 1.548040658235549927e-01 2.624856233596801758e-01 -5.415292978286743164e-01 7.881759405136108398e-01 1.298452615737915039e-01 -3.000309765338897705e-01 9.386165142059326172e-01 -3.836937248706817627e-01 7.108099758625030518e-02 1.273599117994308472e-01 8.405450731515884399e-02 1.908856630325317383e-01 9.601949900388717651e-02 2.532022073864936829e-02 -9.042438268661499023e-01 4.089322388172149658e-01 -1.523321866989135742e-01 -7.803197205066680908e-02 4.054685831069946289e-01 -1.155046105384826660e+00 4.809103310108184814e-01 -4.306731745600700378e-02 -3.199178278446197510e-01 4.790166020393371582e-01 3.093265593051910400e-01 -2.503702342510223389e-01 -3.765178620815277100e-01 3.469445705413818359e-01
-4.961563050746917725e-01 6.116174459457397461e-01 4.103783965110778809e-01 -1.276209056377410889e-01 -3.512551188468933105e-01 1.539665311574935913e-01 -4.810445904731750488e-01 -1.854040622711181641e-01 -4.748460054397583008e-01 -2.512612342834472656e-01 -5.441412925720214844e-01 -3.699202835559844971e-01 2.408306300640106201e-01 -5.627009868621826172e-01 4.568536281585693359e-01 -1.093940734863281250e-01 -7.012617588043212891e-01 7.228308320045471191e-01 -6.384124755859375000e-01 -6.103958487510681152e-01 -8.593173325061798096e-02 3.731015920639038086e-01 -4.322786331176757812e-01 -1.100722420960664749e-02 -1.606694579124450684e+00 4.886386990547180176e-01 -6.379027366638183594e-01 -4.399825632572174072e-01 -1.627977490425109863e-01 2.717917263507843018e-01 -6.802947521209716797e-01 1.823318451642990112e-01 1.492991298437118530e-01 -3.803537786006927490e-01 -7.476291805505752563e-02 6.001316905021667480e-01 -4.125788807868957520e-01 -1.106642246246337891e+00 5.551912784576416016e-01 4.708800613880157471e-01 -2.436970174312591553e-02 -6.052611470222473145e-01 -8.127021193504333496e-01 4.626896977424621582e-01 6.794457137584686279e-02 -5.692781209945678711e-01 -2.544190287590026855e-01 -3.264975547790527344e-01 3.248094320297241211e-01 -3.824977278709411621e-01 -2.079276442527770996e-01 1.492470353841781616e-01 4.348368048667907715e-01 -7.681800425052642822e-02 -5.105543732643127441e-01 -3.859277963638305664e-01 4.737945497035980225e-01 -2.282463014125823975e-01 -6.169832944869995117e-01 6.248214244842529297e-01 -9.065873026847839355e-01 4.730673730373382568e-01 4.933390319347381592e-01 -2.925507128238677979e-01 4.158748686313629150e-01 5.505900979042053223e-01 -3.209084570407867432e-01 9.525015205144882202e-02 -6.534680724143981934e-01 1.180833816528320312e+00 1.134456917643547058e-01 2.615448236465454102e-01 6.783013939857482910e-01 1.641241014003753662e-01 2.999163568019866943e-01 -1.822536885738372803e-01 -8.470894694328308105e-01 1.344201713800430298e-01 -3.303335309028625488e-01 -5.589022636413574219e-01 5.300205945968627930e-01 -7.784860730171203613e-01 6.066367030143737793e-02 2.794682085514068604e-01 -6.165552139282226562e-01 -5.997925996780395508e-01 1.049062460660934448e-01 1.581757217645645142e-01 -1.255116224288940430e+00 3.999492898583412170e-02 -1.233089417219161987e-01 -1.689936667680740356e-01 -5.153016448020935059e-01 3.945936560630798340e-01 2.368963807821273804e-01 -2.491897791624069214e-01 3.214305341243743896e-01 1.429725885391235352e-01 -4.613907933235168457e-01 -5.486685037612915039e-01 2.944822311401367188e-01 2.776682972908020020e-01 3.210068047046661377e-01 -6.084160134196281433e-02 3.315294981002807617e-01 1.604464203119277954e-01 5.732085108757019043e-01 -8.000365495681762695e-01 5.877212882041931152e-01 -1.296110898256301880e-01 2.416224181652069092e-01 9.051825851202011108e-02 -4.923695027828216553e-01 -4.625802338123321533e-01 4.940009415149688721e-01 4.669875502586364746e-01 -1.285171270370483398e+00 -1.052920222282409668e-01 3.207650184631347656e-01 -6.362593173980712891e-01 -1.835830956697463989e-01 -3.140954971313476562e-01 4.697035253047943115e-01 -4.742662906646728516e-01 6.284586191177368164e-01 -1.464367806911468506e-01 -4.495866596698760986e-01 4.781805872917175293e-01 -6.421982049942016602e-01 5.049679800868034363e-02 1.150542855262756348e+00 4.122249484062194824e-01 -1.157915666699409485e-01 9.123148024082183838e-02 -1.544623821973800659e-01 5.324762780219316483e-03 4.763037860393524170e-01 4.493601322174072266e-01 -2.964066863059997559e-01 5.479192137718200684e-01 -1.764241605997085571e-01 -2.879171371459960938e-01 5.783092379570007324e-01 8.245913982391357422e-01 -7.625609040260314941e-01 -9.786206483840942383e-02 2.638986706733703613e-01 -8.612962365150451660e-01 -3.298123180866241455e-01 4.856668785214424133e-02 -2.296371310949325562e-01 5.963255167007446289e-01 -1.893836706876754761e-01 -2.193258889019489288e-02 8.141496777534484863e-02 -6.748878955841064453e-01 -3.650369942188262939e-01 -6.002146601676940918e-01 -6.651357561349868774e-02 7.626276016235351562e-01 3.153805434703826904e-01 -7.432655692100524902e-01 1.601597964763641357e-01 3.604780137538909912e-01 -1.644127517938613892e-01 -9.642475098371505737e-02 8.579955250024795532e-02 3.305266201496124268e-01 -5.862724781036376953e-01 -7.848637104034423828e-01 -5.596008896827697754e-01 3.588576912879943848e-01 -4.232391715049743652e-01 -4.868707060813903809e-01 -7.410849928855895996e-01 -7.169855833053588867e-01 1.920072287321090698e-01 7.012411206960678101e-02 3.477138280868530273e-01 7.573247551918029785e-01 -9.569720178842544556e-02 -9.195072203874588013e-02 9.229891747236251831e-02 -3.815904259681701660e-01 5.240146517753601074e-01 -4.396921694278717041e-01 -3.989701867103576660e-01 -1.073840498924255371e+00 -5.650605559349060059e-01 -3.919551968574523926e-01 -3.566468358039855957e-01 -1.840279996395111084e-01 -6.885653734207153320e-01 7.484562993049621582e-01 -3.411430120468139648e-01 6.554712355136871338e-02 -4.813111573457717896e-02 -2.936979830265045166e-01 6.032450199127197266e-01 -3.430746197700500488e-01 3.320892453193664551e-01 -1.982060074806213379e-01 1.786461323499679565e-01 -4.633861184120178223e-01 1.869903504848480225e-01 1.481863856315612793e-01 -4.328723847866058350e-01 -5.003417730331420898e-01 7.416794896125793457e-01 -6.910605430603027344e-01 -9.853721261024475098e-01 -2.853514552116394043e-01 6.698898505419492722e-03 -3.700925409793853760e-01 -2.061581909656524658e-01 -2.033258527517318726e-01 -1.287995837628841400e-02 1.065459549427032471e-01 1.300157327204942703e-02 4.484244585037231445e-01 -1.086079329252243042e-02 3.789113759994506836e-01 1.300177574157714844e-01 3.856957554817199707e-01 1.457177251577377319e-01 -1.491518504917621613e-02 3.282058238983154297e-01 -1.842428743839263916e-01 -2.458585798740386963e-01 -2.620313763618469238e-01 4.603680670261383057e-01 2.193215042352676392e-01 3.602337539196014404e-01 -4.905291274189949036e-02 8.638480305671691895e-01 -5.248981118202209473e-01 9.577683806419372559e-01 1.884786188602447510e-01 -2.517659217119216919e-02 -3.244120776653289795e-01 1.936572939157485962e-01 -1.955598890781402588e-01 -8.563610911369323730e-01 -1.395113617181777954e-01 3.625527024269104004e-01 2.535282969474792480e-01 1.135288700461387634e-01 -3.328149020671844482e-01 -3.470274209976196289e-01 -4.780855774879455566e-01 -2.097677737474441528e-01 -7.099767327308654785e-01 -1.112491011619567871e+00 4.339471459388732910e-01 -2.450414746999740601e-01 3.495811820030212402e-01
-8.408917784690856934e-01 1.314736247062683105e+00 -1.235256433486938477e+00 -9.633418172597885132e-02 -1.755091249942779541e-01 -1.142223626375198364e-01 -3.183122277259826660e-01 -4.839471876621246338e-01 4.937606155872344971e-01 8.254655599594116211e-01 -4.613970816135406494e-01 4.240575432777404785e-01 5.064940452575683594e-01 -3.586478531360626221e-01 1.968412995338439941e-01 -2.448191195726394653e-01 1.107480645179748535e+00 -5.544873699545860291e-02 -7.112501859664916992e-01 8.699826002120971680e-01 5.744741559028625488e-01 -5.380707606673240662e-02 9.557638168334960938e-01 -5.727566480636596680e-01 6.800390481948852539e-01 -2.478610873222351074e-01 -3.012969791889190674e-01 -6.868559122085571289e-01 5.058233737945556641e-01 -2.636720836162567139e-01 -3.419198840856552124e-02 -4.564203321933746338e-01 6.297253966331481934e-01 2.511488646268844604e-02 1.425612717866897583e-01 8.710218071937561035e-01 3.902655839920043945e-01 -3.778729140758514404e-01 5.708559229969978333e-02 -1.954181492328643799e-01 -1.065629363059997559e+00 -8.401143550872802734e-01 5.389859080314636230e-01 -7.986782491207122803e-02 -1.823593489825725555e-02 -1.863475292921066284e-01 -6.713310629129409790e-02 -2.981097996234893799e-01 3.372235223650932312e-02 4.188171327114105225e-01 -1.693480759859085083e-01 8.395135402679443359e-01 -6.707739233970642090e-01 -3.596338331699371338e-01 3.480768799781799316e-01 -3.735335767269134521e-01 4.724527001380920410e-01 9.028130769729614258e-02 1.152080774307250977e+00 -4.420998096466064453e-01 1.320781409740447998e-01 -8.795898556709289551e-01 -4.429791867733001709e-01 -7.453907132148742676e-01 -3.506299555301666260e-01 -6.113287210464477539e-01 3.812449276447296143e-01 -5.458885431289672852e-01 1.040318250656127930e+00 -2.075718641281127930e-01 5.389649420976638794e-02 -2.811893522739410400e-01 6.742806434631347656e-01 -6.365990638732910156e-01 4.330759644508361816e-01 -6.601356267929077148e-01 -3.424021899700164795e-01 -1.346507854759693146e-02 3.743773996829986572e-01 -5.598542690277099609e-01 3.196887075901031494e-01 1.097280502319335938e+00 7.921976596117019653e-02 -2.451023757457733154e-01 -1.826812624931335449e-01 4.225980341434478760e-01 -4.209858477115631104e-01 1.288483589887619019e-01 -5.561261773109436035e-01 2.227813601493835449e-01 -1.004376053810119629e+00 1.859750449657440186e-01 -5.561215281486511230e-01 -1.008079499006271362e-01 3.090002536773681641e-01 -6.360568404197692871e-01 1.893257647752761841e-01 -4.905148744583129883e-01 -5.121846124529838562e-02 -1.962318122386932373e-01 2.414129674434661865e-01 -3.684792816638946533e-01 4.121021926403045654e-01 -1.109947562217712402e-01 8.695948719978332520e-01 2.066441327333450317e-01 -4.909587204456329346e-01 7.365445047616958618e-02 -7.693631649017333984e-01 -6.185434460639953613e-01 -4.164823889732360840e-01 1.800050884485244751e-01 -4.592203199863433838e-01 -1.709307283163070679e-01 -1.521602869033813477e-01 -3.468618094921112061e-01 -1.454838514328002930e-01 -5.706211328506469727e-01 -6.197425723075866699e-01 -3.119204640388488770e-01 6.924154162406921387e-01 6.144455075263977051e-01 -6.332222372293472290e-02 4.203505516052246094e-01 -5.866371393203735352e-01 3.146429955959320068e-01 4.629798829555511475e-01 1.698764264583587646e-01 5.336713194847106934e-01 6.285263299942016602e-01 -2.571782469749450684e-01 -5.047777891159057617e-01 -1.292894035577774048e-01 6.936743259429931641e-01 3.481240272521972656e-01 -1.087071895599365234e-01 -3.590578138828277588e-01 4.255878925323486328e-01 6.597461104393005371e-01 -8.412934839725494385e-02 -1.787363924086093903e-02 -2.893323600292205811e-01 -7.539387345314025879e-01 4.271000027656555176e-01 -5.172967910766601562e-01 -6.103059053421020508e-01 -4.148723781108856201e-01 -1.176440864801406860e-01 -1.915672570466995239e-01 -4.513732194900512695e-01 4.517610073089599609e-01 7.215486466884613037e-02 1.279680877923965454e-01 1.216624006628990173e-01 -4.495243430137634277e-01 -4.950344562530517578e-01 -6.925891637802124023e-01 -6.190447211265563965e-01 2.231344729661941528e-01 3.109868168830871582e-01 -3.112957477569580078e-01 4.429043829441070557e-01 -5.016918778419494629e-01 2.001833170652389526e-01 4.591423273086547852e-01 -2.161100506782531738e-01 2.024362683296203613e-01 -3.498438373208045959e-02 3.220122158527374268e-01 -2.844339609146118164e-02 -1.682658642530441284e-01 -3.139018416404724121e-01 -6.133348941802978516e-01 -4.944720864295959473e-01 1.162996530532836914e+00 2.112451195716857910e-01 -5.482653379440307617e-01 2.529665231704711914e-01 1.199612915515899658e-01 -2.445841431617736816e-01 -6.120607852935791016e-01 -2.936745882034301758e-01 1.540714204311370850e-01 1.103576496243476868e-01 5.854451060295104980e-01 -1.912459731101989746e-01 -8.486382961273193359e-01 -8.665869943797588348e-03 8.638521283864974976e-02 -6.718550920486450195e-01 5.355128049850463867e-01 1.357321441173553467e-01 3.860112726688385010e-01 4.300963282585144043e-01 2.666317224502563477e-01 -1.843735277652740479e-01 2.804897166788578033e-02 1.632115244865417480e-02 -3.286937475204467773e-01 8.054141998291015625e-01 -2.305084019899368286e-01 9.562610834836959839e-02 4.981550872325897217e-01 -5.608948692679405212e-02 4.104789197444915771e-01 9.232211112976074219e-02 -8.211151957511901855e-01 7.582915425300598145e-01 -3.761052489280700684e-01 3.845323249697685242e-02 5.802174210548400879e-01 -4.794610198587179184e-03 5.129820108413696289e-01 5.844846367835998535e-02 4.475829303264617920e-01 6.119508743286132812e-01 5.607370138168334961e-01 2.543429732322692871e-01 -4.332362711429595947e-01 -9.973287582397460938e-03 -2.681474089622497559e-01 -1.243965551257133484e-01 -2.331653833389282227e-01 -2.204268984496593475e-02 -4.221477508544921875e-01 -1.335277199745178223e+00 -6.699472665786743164e-01 -3.481565788388252258e-02 5.242075920104980469e-01 -1.295951724052429199e+00 -9.523017406463623047e-01 9.923891425132751465e-01 1.416957527399063110e-01 -8.003070950508117676e-01 -1.293662548065185547e+00 3.259644508361816406e-01 -2.237357795238494873e-01 3.454966843128204346e-01 2.032915502786636353e-01 3.401663303375244141e-01 -3.618443310260772705e-01 2.874449789524078369e-01 1.024701476097106934e+00 -3.869733214378356934e-01 3.195301890373229980e-01 -1.302688419818878174e-01 3.602218329906463623e-01 1.615175753831863403e-01 1.321225464344024658e-01 -3.333014845848083496e-01 -1.125084012746810913e-01 1.066310182213783264e-01 6.017149686813354492e-01 -4.927170276641845703e-01 -1.100047230720520020e+00 2.446034848690032959e-01
7.802158594131469727e-01 -7.577520608901977539e-01 -4.041194319725036621e-01 -4.166911244392395020e-01 6.035671010613441467e-02 4.541608691215515137e-01 4.271739423274993896e-01 1.476968675851821899e-01 -4.045976400375366211e-01 -1.347876852378249168e-03 -2.210690975189208984e-01 -2.964887022972106934e-01 5.400729775428771973e-01 -6.776008009910583496e-01 -1.007132306694984436e-01 5.536591410636901855e-01 1.810307502746582031e-01 -3.745979666709899902e-01 -6.574349105358123779e-02 2.803836390376091003e-02 1.514370441436767578e-01 -9.920988082885742188e-01 1.414711624383926392e-01 1.633909046649932861e-01 -1.374346464872360229e-01 -1.405650973320007324e-01 2.138723284006118774e-01 -8.108338713645935059e-01 4.478044062852859497e-02 -9.771533608436584473e-01 -1.111213266849517822e-01 -3.182582557201385498e-01 8.902818709611892700e-02 1.684512197971343994e-01 5.975875258445739746e-01 1.282222032546997070e+00 2.773357927799224854e-01 -8.988437652587890625e-01 5.273131132125854492e-01 -6.732444167137145996e-01 1.365046352148056030e-01 -5.722600817680358887e-01 -4.225136637687683105e-01 -1.407832056283950806e-01 -2.483484745025634766e-01 -1.731881797313690186e-01 -2.191554158926010132e-01 -2.333742827177047729e-01 1.635418534278869629e-01 7.513400316238403320e-01 3.571477830410003662e-01 1.997991800308227539e-01 5.698837637901306152e-01 -1.270630061626434326e-01 5.820965766906738281e-01 3.586795032024383545e-01 -1.057615727186203003e-01 6.234380602836608887e-01 1.152483969926834106e-01 -3.571210503578186035e-01 1.129389032721519470e-01 -1.921684890985488892e-01 5.284720659255981445e-01 -2.741232216358184814e-01 2.311635576188564301e-02 -7.570814490318298340e-01 1.793610155582427979e-01 -1.096501424908638000e-01 -3.943698108196258545e-01 -2.837531566619873047e-01 -5.009455680847167969e-01 -2.502007782459259033e-01 -4.327164590358734131e-01 4.127186238765716553e-01 -3.120689392089843750e-01 1.049505695700645447e-01 -1.835201531648635864e-01 -3.909704387187957764e-01 6.650944948196411133e-01 -5.283797383308410645e-01 -2.821223735809326172e-01 -6.021603345870971680e-01 -9.778703749179840088e-02 1.221223846077919006e-01 -2.423152700066566467e-02 3.362534642219543457e-01 -1.165595948696136475e-01 -1.589095592498779297e-01 1.470896154642105103e-01 -9.340772032737731934e-02 2.221778333187103271e-01 -7.804188877344131470e-02 3.729775846004486084e-01 -2.425282001495361328e-01 -4.822006523609161377e-01 -5.631861090660095215e-01 5.872527956962585449e-01 -1.664680391550064087e-01 1.000243276357650757e-01 2.464719563722610474e-01 -1.330462992191314697e-01 8.075434565544128418e-01 -1.041171669960021973e+00 2.754929661750793457e-01 4.056529328227043152e-02 -4.566276371479034424e-01 3.773536384105682373e-01 2.213669419288635254e-01 -9.815127253532409668e-01 -1.016771435737609863e+00 -2.309273034334182739e-01 2.823430597782135010e-01 2.828792333602905273e-01 8.318340033292770386e-02 -4.997836351394653320e-01 -8.764017820358276367e-01 -1.634210050106048584e-01 -2.016897052526473999e-01 4.650649130344390869e-01 5.065993666648864746e-01 -1.348560899496078491e-01 -2.929899394512176514e-01 -8.594157695770263672e-01 8.722610771656036377e-02 3.761936724185943604e-01 -1.375162899494171143e-01 9.012438356876373291e-02 1.986248642206192017e-01 -1.351268589496612549e-01 3.164562284946441650e-01 -4.361474514007568359e-01 -2.441753745079040527e-01 -1.673584133386611938e-01 3.412039279937744141e-01 9.372164309024810791e-02 -2.000691294670104980e-01 -2.212702333927154541e-01 -6.344434022903442383e-01 -6.485620141029357910e-02 -3.126979172229766846e-01 -1.239803880453109741e-01 -2.583306431770324707e-01 3.613867461681365967e-01 -3.674023747444152832e-01 -1.028285503387451172e+00 -9.075872898101806641e-01 -9.773578494787216187e-02 -5.667732954025268555e-01 4.917529225349426270e-01 8.021830767393112183e-02 2.584169805049896240e-02 2.006683647632598877e-01 5.030332803726196289e-01 -5.277608633041381836e-01 3.981335833668708801e-02 -2.006885409355163574e-01 -7.211124897003173828e-02 -5.016755685210227966e-02 -3.241916000843048096e-01 4.865855276584625244e-01 -8.263294100761413574e-01 1.793286204338073730e-01 -4.027184844017028809e-01 5.163482427597045898e-01 4.544219076633453369e-01 1.494294852018356323e-01 -3.421244323253631592e-01 -3.552252352237701416e-01 -4.501495361328125000e-01 -2.639988362789154053e-01 -1.829277127981185913e-01 2.370280772447586060e-01 4.557308852672576904e-01 4.330759644508361816e-01 4.337203502655029297e-02 3.704257607460021973e-01 6.545432806015014648e-01 1.021194159984588623e-01 -3.853062912821769714e-02 -4.785140156745910645e-01 -2.228286713361740112e-01 -7.303103208541870117e-01 -1.436934918165206909e-01 -7.515253964811563492e-03 -6.578260660171508789e-01 1.029891427606344223e-02 -2.170757800340652466e-01 -7.995285093784332275e-02 -6.320668458938598633e-01 -7.219760864973068237e-02 6.427675485610961914e-02 -3.280707597732543945e-01 -1.679303348064422607e-01 7.019426673650741577e-03 -1.878744661808013916e-01 -6.251745223999023438e-01 -2.006007283926010132e-01 1.127687916159629822e-01 -3.708780556917190552e-02 3.861484229564666748e-01 -5.661733150482177734e-01 -4.534298181533813477e-01 -1.048514842987060547e+00 5.061132460832595825e-02 -3.533802032470703125e-01 -1.133128330111503601e-01 -2.933568656444549561e-01 -5.120195746421813965e-01 -8.494316935539245605e-01 3.398977816104888916e-01 -3.167090415954589844e-01 1.192399933934211731e-01 2.807476744055747986e-02 -4.477712512016296387e-01 2.747144401073455811e-01 -2.799997627735137939e-01 2.231585085391998291e-01 -5.926322340965270996e-01 3.170149624347686768e-01 -3.606649041175842285e-01 -4.316917955875396729e-01 2.580742239952087402e-01 3.826214671134948730e-01 3.656319379806518555e-01 5.011608600616455078e-01 1.528143286705017090e-01 7.206788063049316406e-01 2.704004943370819092e-01 -5.353398919105529785e-01 7.085011005401611328e-01 2.522861063480377197e-01 -6.828016787767410278e-02 -1.445713788270950317e-01 -3.227536082267761230e-01 3.215622603893280029e-01 -5.544961094856262207e-01 4.343580603599548340e-01 -2.280193567276000977e-01 9.096068888902664185e-02 -3.932503163814544678e-01 -1.368301510810852051e-01 -5.983555316925048828e-01 -5.207095742225646973e-01 7.821734249591827393e-02 -3.097707331180572510e-01 3.958274722099304199e-01 1.023276224732398987e-01 -1.067576631903648376e-01 -5.738918781280517578e-01 1.739316582679748535e-01 -5.054267048835754395e-01 -8.897816538810729980e-01 -2.681740224361419678e-01 1.009813845157623291e-01 5.842052027583122253e-02 -3.550855442881584167e-02
-4.073234498500823975e-01 -1.337928414344787598e+00 2.397602647542953491e-01 -2.565476894378662109e-01 5.734335184097290039e-01 6.753097176551818848e-01 -1.751344949007034302e-01 -6.175071597099304199e-01 -8.216074705123901367e-01 1.001497268676757812e+00 1.806934475898742676e-01 -6.518929451704025269e-02 2.295171916484832764e-01 -7.451786398887634277e-01 9.716153144836425781e-02 -1.367449462413787842e-01 3.059653341770172119e-01 -2.214504629373550415e-01 -7.846138477325439453e-01 -8.025422096252441406e-01 4.093624949455261230e-01 -2.345140129327774048e-01 8.550153970718383789e-01 2.755547761917114258e-01 6.794929504394531250e-02 2.844655215740203857e-01 -6.733748316764831543e-01 4.471639990806579590e-01 1.706181615591049194e-01 -5.000284314155578613e-01 3.853946030139923096e-01 -8.268744945526123047e-01 5.839614272117614746e-01 -1.206631213426589966e-01 2.072082161903381348e-01 -2.195199877023696899e-01 -8.304407447576522827e-02 7.872714996337890625e-01 -4.637029170989990234e-01 1.909817159175872803e-01 1.251734141260385513e-02 6.174857020378112793e-01 -3.148652315139770508e-01 5.271173715591430664e-01 1.277559995651245117e-01 -6.182708740234375000e-01 -2.598301172256469727e-01 4.831180870532989502e-01 1.927959918975830078e-01 -9.267997741699218750e-02 1.283189207315444946e-01 3.825137019157409668e-02 -3.865360319614410400e-01 -5.137237906455993652e-01 -5.541987419128417969e-01 -2.425233870744705200e-01 1.524248421192169189e-01 -1.809233576059341431e-01 -4.420507550239562988e-01 5.912662744522094727e-01 1.910192072391510010e-01 -9.345080852508544922e-01 3.118353486061096191e-01 4.543967545032501221e-02 1.697921156883239746e-01 2.744014561176300049e-01 -1.726107150316238403e-01 -2.703339159488677979e-01 -6.138150691986083984e-01 6.936699748039245605e-01 5.967008322477340698e-02 2.353595048189163208e-01 4.941762983798980713e-01 -1.139537394046783447e-01 5.111334919929504395e-01 4.358853995800018311e-01 -4.851928353309631348e-01 -3.584854602813720703e-01 -4.568169713020324707e-01 -6.357273459434509277e-01 -1.423407196998596191e-01 4.396260976791381836e-01 -2.823134362697601318e-01 -5.756661891937255859e-01 2.468464374542236328e-01 2.781600058078765869e-01 -1.016304612159729004e+00 1.817514598369598389e-01 2.866282761096954346e-01 2.761151492595672607e-01 2.912387847900390625e-01 -1.145684644579887390e-01 5.121220946311950684e-01 -6.238424777984619141e-01 -1.859919726848602295e-01 1.703339815139770508e-01 -3.153045475482940674e-01 1.300337016582489014e-01 -5.435567498207092285e-01 7.193067669868469238e-02 3.979976773262023926e-01 2.317109256982803345e-01 1.092878356575965881e-01 -2.371036447584629059e-02 -1.238345913589000702e-02 4.546172022819519043e-01 3.928748071193695068e-01 -6.306306719779968262e-01 2.451104372739791870e-01 1.763367503881454468e-01 1.786259114742279053e-01 -3.550402522087097168e-01 -1.280585825443267822e-01 -5.657814741134643555e-01 -7.021604180335998535e-01 5.119743943214416504e-01 -5.011088848114013672e-01 6.335964202880859375e-01 2.619432806968688965e-01 3.881983160972595215e-01 5.396793484687805176e-01 9.575072526931762695e-01 -4.381599426269531250e-01 7.100437581539154053e-02 -1.117375344038009644e-01 -5.360203981399536133e-01 -3.512683212757110596e-01 -2.181945368647575378e-02 -2.012200653553009033e-01 5.863485857844352722e-03 1.663460880517959595e-01 -5.348602533340454102e-01 6.798474192619323730e-01 1.302487403154373169e-01 -4.597830399870872498e-02 5.314107984304428101e-02 -3.841182887554168701e-01 9.183008223772048950e-02 8.897555992007255554e-03 4.016989767551422119e-01 -1.274083733558654785e+00 -7.002493739128112793e-02 4.358333051204681396e-01 3.522333204746246338e-01 2.831728458404541016e-01 3.456437885761260986e-01 3.359778225421905518e-01 -5.682485699653625488e-01 -8.596505522727966309e-01 3.629961013793945312e-01 -5.222457647323608398e-01 -6.913320422172546387e-01 8.904484510421752930e-01 3.845345675945281982e-01 4.882092773914337158e-01 2.733686268329620361e-01 -2.234780788421630859e-01 -4.528647065162658691e-01 2.686457335948944092e-01 -3.512676358222961426e-01 3.435679376125335693e-01 -3.084688484668731689e-01 1.668904572725296021e-01 2.490064948797225952e-01 1.138885915279388428e-01 -4.385087490081787109e-01 1.293855607509613037e-01 2.820000350475311279e-01 3.299951553344726562e-02 1.956567913293838501e-01 -6.248062252998352051e-01 2.246385365724563599e-01 -8.968092203140258789e-01 1.011200696229934692e-01 -4.942450225353240967e-01 -3.011502623558044434e-01 -2.811828553676605225e-01 -1.473920885473489761e-02 5.296386778354644775e-02 1.639744192361831665e-01 7.475457787513732910e-01 -4.551674127578735352e-01 1.045250177383422852e+00 -7.669830322265625000e-01 -2.549472451210021973e-02 -7.449456956237554550e-03 -5.871599912643432617e-01 5.572957545518875122e-02 -8.271220326423645020e-01 -9.681463241577148438e-02 -2.422298192977905273e-01 -8.720090985298156738e-02 -5.974719524383544922e-01 4.127205014228820801e-01 8.366045355796813965e-01 4.229246675968170166e-01 3.436875045299530029e-01 1.793141961097717285e-01 5.025509595870971680e-01 7.780929654836654663e-02 1.950411349534988403e-01 -4.532893896102905273e-01 7.371851205825805664e-01 -2.071243375539779663e-01 6.264238953590393066e-01 4.495610296726226807e-02 5.880883932113647461e-01 8.916380405426025391e-01 -5.521007776260375977e-01 -1.961940377950668335e-01 -9.216699004173278809e-01 3.538621068000793457e-01 -4.416446983814239502e-01 3.773402273654937744e-01 -1.519684195518493652e-01 -5.854742527008056641e-01 -2.148601263761520386e-01 -8.118726611137390137e-01 3.602242767810821533e-01 8.243267238140106201e-02 -2.033647894859313965e-01 -3.279668390750885010e-01 6.294369697570800781e-01 -1.060141697525978088e-01 4.845348000526428223e-01 2.077010422945022583e-01 2.999721467494964600e-01 -1.558083388954401016e-02 -1.366050541400909424e-01 -4.570262134075164795e-01 -1.377771496772766113e-01 -3.406500220298767090e-01 -4.331750050187110901e-02 -1.117061078548431396e-01 -2.283237725496292114e-01 -1.086255013942718506e-01 -3.431501090526580811e-01 -1.229882612824440002e-01 -8.269094228744506836e-01 -3.877297937870025635e-01 -4.584683179855346680e-01 1.261749714612960815e-01 7.273819446563720703e-01 3.469844162464141846e-01 -3.443644344806671143e-01 8.944121599197387695e-01 -2.951185703277587891e-01 1.174431294202804565e-01 -1.159412741661071777e+00 -5.049904063344001770e-02 -2.380802333354949951e-01 -4.650129675865173340e-01 -6.600571870803833008e-01 -7.268161773681640625e-01 -4.068149626255035400e-01 1.416748017072677612e-01
-1.219430923461914062e+00 -5.097352266311645508e-01 2.671406865119934082e-01 2.101215720176696777e-01 8.340811729431152344e-01 -6.897766590118408203e-01 -8.905162662267684937e-02 2.129938453435897827e-01 -4.295849427580833435e-02 4.872949123382568359e-01 1.716523021459579468e-01 -2.721699178218841553e-01 -1.698507815599441528e-01 -6.072316169738769531e-01 -4.210808873176574707e-01 2.087371647357940674e-01 -2.605158984661102295e-01 -6.435761451721191406e-01 1.664238721132278442e-01 3.518176823854446411e-02 -1.172839030623435974e-01 2.280235141515731812e-01 -1.054863572120666504e+00 -2.362849414348602295e-01 -8.521554619073867798e-02 -4.124924540519714355e-01 -4.461317658424377441e-01 -1.479884684085845947e-01 1.775065660476684570e-01 -8.240626454353332520e-01 -4.125658869743347168e-01 6.496024131774902344e-02 -3.476603627204895020e-01 -7.290861606597900391e-01 -2.950878739356994629e-01 -3.776381164789199829e-02 -3.559122979640960693e-01 -2.736506164073944092e-01 -4.439720511436462402e-01 -6.346098612993955612e-03 -9.444783329963684082e-01 -1.608934253454208374e-01 -7.260903716087341309e-01 -2.804271131753921509e-02 2.635721266269683838e-01 1.823469251394271851e-01 1.242456957697868347e-01 3.897359073162078857e-01 8.478073775768280029e-02 7.436743378639221191e-01 -4.707043468952178955e-01 -9.721650928258895874e-02 3.326413780450820923e-02 2.121193259954452515e-01 -5.332153439521789551e-01 3.957945406436920166e-01 -1.046812385320663452e-01 1.440297365188598633e-01 -1.838693618774414062e-01 -8.600911498069763184e-02 -3.836800456047058105e-01 -3.091752827167510986e-01 1.297014802694320679e-01 6.142854690551757812e-01 2.381114810705184937e-01 -7.946135997772216797e-01 -1.746122688055038452e-01 1.803238242864608765e-01 -3.086659610271453857e-01 4.571301341056823730e-01 2.417334169149398804e-01 3.453411161899566650e-01 -7.495836615562438965e-01 2.438235580921173096e-01 -4.834670200943946838e-02 -6.550889015197753906e-01 2.336019128561019897e-01 -4.818191230297088623e-01 3.961265981197357178e-01 -1.897536814212799072e-01 -7.475168257951736450e-02 -7.420447468757629395e-01 8.866074681282043457e-01 -3.976642787456512451e-01 -7.304348796606063843e-02 -9.045600146055221558e-02 -6.747406125068664551e-01 -7.419632673263549805e-01 -1.642802655696868896e-01 -4.524718821048736572e-01 3.326236903667449951e-01 -5.267754197120666504e-02 8.944227546453475952e-02 -3.984843492507934570e-01 6.953235715627670288e-02 2.152857929468154907e-01 4.496032595634460449e-01 -5.799829363822937012e-01 5.445013940334320068e-02 2.955043911933898926e-01 -1.777082830667495728e-01 1.021182611584663391e-01 -3.832667768001556396e-01 4.247925281524658203e-01 -4.851967394351959229e-01 3.984477221965789795e-01 -4.719360470771789551e-01 -2.954366207122802734e-01 2.817484140396118164e-01 -2.231220304965972900e-01 -1.314663439989089966e-01 3.593043982982635498e-02 -1.786140650510787964e-01 -4.198907613754272461e-01 6.721860766410827637e-01 -6.517826914787292480e-01 2.978449761867523193e-01 9.418265521526336670e-02 6.175580024719238281e-01 2.193890511989593506e-01 -5.116519927978515625e-01 -2.590534090995788574e-01 1.787500232458114624e-01 -8.813025355339050293e-01 -2.692365348339080811e-01 -4.108859896659851074e-01 -7.460673451423645020e-01 1.611095815896987915e-01 1.761902719736099243e-01 3.424281477928161621e-01 -1.441722810268402100e-01 1.063198037445545197e-02 4.101440608501434326e-01 4.028641283512115479e-01 -2.421742826700210571e-01 5.169727206230163574e-01 -3.133213520050048828e-01 -3.976074457168579102e-01 -5.009516477584838867e-01 6.551642715930938721e-02 2.942874729633331299e-01 -2.954445779323577881e-01 -1.799500547349452972e-02 -2.404617816209793091e-01 -1.619057357311248779e-01 -7.322403043508529663e-02 5.372398495674133301e-01 2.953501641750335693e-01 3.008359484374523163e-02 6.570214033126831055e-02 2.323337830603122711e-02 -7.237756252288818359e-02 4.597075283527374268e-02 -6.611522436141967773e-01 1.453986614942550659e-01 3.109405040740966797e-01 -7.288561016321182251e-02 -2.557672858238220215e-01 -6.809170842170715332e-01 -8.194331526756286621e-01 1.353372186422348022e-01 2.420839369297027588e-01 4.168424010276794434e-01 2.304098606109619141e-01 2.752694487571716309e-01 -1.067804843187332153e-01 3.844577670097351074e-01 1.245018094778060913e-01 -9.174969196319580078e-01 -5.337309241294860840e-01 -1.562758237123489380e-01 -6.784519553184509277e-01 6.880719959735870361e-02 -2.840453684329986572e-01 -5.207071453332901001e-02 2.019799202680587769e-01 -5.421020984649658203e-01 4.271546602249145508e-01 1.750725209712982178e-01 -9.433505535125732422e-01 -5.273560285568237305e-01 -7.852488197386264801e-03 2.192811854183673859e-02 7.139643430709838867e-01 -2.926371395587921143e-01 -6.589228510856628418e-01 -2.615317106246948242e-01 -2.191588878631591797e-01 2.572428993880748749e-02 6.917025446891784668e-01 3.862089514732360840e-01 -5.650377273559570312e-01 -1.601769216358661652e-02 2.956532239913940430e-01 -6.647822260856628418e-01 2.277154177427291870e-01 8.931928873062133789e-02 -4.062859714031219482e-01 -2.656440734863281250e-01 8.700204640626907349e-02 -6.386524438858032227e-01 -3.728729784488677979e-01 -3.482856974005699158e-02 4.847601652145385742e-01 -1.043454766273498535e+00 5.047348141670227051e-02 9.635506570339202881e-02 -1.638785302639007568e-01 -2.723943293094635010e-01 -8.003046363592147827e-02 4.714466929435729980e-01 3.492706418037414551e-01 3.111793100833892822e-01 -3.205398917198181152e-01 -1.934597939252853394e-01 -4.916161298751831055e-01 -1.640981286764144897e-01 -6.885876059532165527e-01 3.082278072834014893e-01 -4.766682982444763184e-01 -1.072932481765747070e+00 -5.680644512176513672e-01 -4.440739154815673828e-01 5.532094463706016541e-02 8.078749477863311768e-02 6.887011975049972534e-02 4.126810431480407715e-01 3.096229732036590576e-01 -5.389783158898353577e-02 -1.410120278596878052e-01 -5.245018377900123596e-02 -3.369769454002380371e-01 3.562745153903961182e-01 2.356375008821487427e-01 3.169729113578796387e-01 2.569600641727447510e-01 1.116293147206306458e-01 3.061329722404479980e-01 -1.359099149703979492e-01 5.839703232049942017e-02 3.690706938505172729e-02 -6.084918975830078125e-01 -1.975486055016517639e-02 -4.371235072612762451e-01 3.386290073394775391e-01 -1.141221523284912109e-01 4.241347014904022217e-01 1.560060977935791016e-01 -1.681338697671890259e-01 4.717779345810413361e-03 -2.700155377388000488e-01 4.873823523521423340e-01 -3.287566602230072021e-01 -2.106489539146423340e-01 3.599019721150398254e-02 1.225172653794288635e-01
5.500155091285705566e-01 9.715729355812072754e-01 -9.078984260559082031e-01 5.395344495773315430e-01 -1.759501397609710693e-01 6.588943302631378174e-02 6.517685055732727051e-01 -5.399714708328247070e-01 -4.259354472160339355e-01 -2.127811610698699951e-01 2.999423146247863770e-01 4.576016068458557129e-01 6.322509646415710449e-01 7.207553386688232422e-01 -9.604862928390502930e-01 4.393717348575592041e-01 8.230364918708801270e-01 -5.450648665428161621e-01 4.239760339260101318e-01 4.910026490688323975e-01 -7.215486764907836914e-01 -4.983921945095062256e-01 -9.158923029899597168e-01 2.797542810440063477e-01 -4.197226166725158691e-01 4.719578921794891357e-01 1.050646066665649414e+00 -1.664217710494995117e-01 -4.151031672954559326e-01 -1.428418278694152832e+00 -1.929108798503875732e-02 3.065272271633148193e-01 -9.916108250617980957e-01 -1.057409405708312988e+00 6.513653993606567383e-01 3.949334025382995605e-01 -9.474635869264602661e-02 5.203416347503662109e-01 -5.770618319511413574e-01 -1.502255201339721680e-01 -4.725502058863639832e-02 2.127161324024200439e-01 6.394302099943161011e-02 3.720767498016357422e-01 5.824404954910278320e-01 4.397597014904022217e-01 -6.730782240629196167e-02 2.478606402873992920e-01 1.135853677988052368e-01 -1.675186306238174438e-01 1.520866006612777710e-01 -1.320092529058456421e-01 -2.866089642047882080e-01 -1.649190783500671387e-01 -4.548516273498535156e-01 6.433475613594055176e-01 -8.870377540588378906e-01 -2.217812091112136841e-01 3.703295588493347168e-01 3.213745057582855225e-01 -2.113135755062103271e-01 2.934628725051879883e-01 1.129362657666206360e-01 5.424876231700181961e-03 -7.749035954475402832e-01 -1.304251670837402344e+00 3.196824193000793457e-01 5.554850101470947266e-01 5.704396367073059082e-01 -1.351730585098266602e+00 -2.152020484209060669e-01 -1.392085403203964233e-01 -1.245528683066368103e-01 -2.970642447471618652e-01 -1.103136986494064331e-01 -3.780660927295684814e-01 -2.723319828510284424e-01 -1.213596612215042114e-01 -1.041076302528381348e+00 -3.261663019657135010e-01 -5.377723574638366699e-01 2.515934109687805176e-01 -2.701000273227691650e-01 4.413599893450737000e-02 -3.612480461597442627e-01 3.115234076976776123e-01 -1.656658798456192017e-01 -6.752017140388488770e-02 -3.725190088152885437e-02 4.776066243648529053e-01 -2.832755148410797119e-01 -8.457042574882507324e-01 -1.418249249458312988e+00 -5.280800461769104004e-01 -5.453366637229919434e-01 3.834405541419982910e-01 -8.403313159942626953e-01 -2.282280921936035156e-01 -7.809413364157080650e-04 -1.131312549114227295e-01 3.226426839828491211e-01 -4.784431159496307373e-01 2.266867756843566895e-01 -1.169176459312438965e+00 -7.225487232208251953e-01 -7.653263956308364868e-02 -2.033302187919616699e-01 -9.368246197700500488e-01 2.270409762859344482e-01 -3.344773501157760620e-02 -6.408339142799377441e-01 4.592987895011901855e-01 3.033638596534729004e-01 4.918730258941650391e-01 1.517553180456161499e-01 -3.282773494720458984e-01 -3.061987273395061493e-02 -5.825426578521728516e-01 -4.630520045757293701e-01 5.906979553401470184e-03 2.938425838947296143e-01 -4.263081252574920654e-01 2.927205264568328857e-01 -9.188100695610046387e-03 6.550663709640502930e-01 -3.257664740085601807e-01 6.006314158439636230e-01 -2.288073450326919556e-01 -2.244277894496917725e-01 6.937085986137390137e-01 -1.168070077896118164e+00 -3.052395582199096680e-01 3.754912614822387695e-01 -4.733255207538604736e-01 1.286624521017074585e-01 1.727575212717056274e-01 4.257220625877380371e-01 -2.349578589200973511e-02 -6.826044619083404541e-02 -3.879078924655914307e-01 -2.019138485193252563e-01 -5.392116904258728027e-01 -5.399137735366821289e-01 4.026106894016265869e-01 3.584969341754913330e-01 -1.433655023574829102e-01 8.882849663496017456e-02 7.847270965576171875e-01 -6.725074052810668945e-01 3.051157593727111816e-01 -6.811170279979705811e-02 -3.085041046142578125e-01 -3.141471445560455322e-01 2.682313024997711182e-01 -7.433856725692749023e-01 4.471783638000488281e-01 -5.832476019859313965e-01 4.904476702213287354e-01 -3.692527115345001221e-02 -9.057462811470031738e-01 5.540287494659423828e-01 6.328155398368835449e-01 -2.692126929759979248e-01 -6.279926896095275879e-01 2.990548014640808105e-01 -2.706761658191680908e-01 -3.058120012283325195e-01 1.991954594850540161e-01 -1.230881959199905396e-01 -6.381794810295104980e-01 7.415488362312316895e-01 6.573139429092407227e-01 -3.863772451877593994e-01 5.626082420349121094e-01 -1.806623637676239014e-01 -8.010724186897277832e-02 -9.056443348526954651e-03 3.475545346736907959e-02 -2.870081365108489990e-01 -1.081062793731689453e+00 4.158470630645751953e-01 -6.978154778480529785e-01 -5.928310155868530273e-01 4.692733287811279297e-01 1.648694574832916260e-01 3.216070309281349182e-02 -1.118749082088470459e-01 4.708816111087799072e-01 -6.728200912475585938e-01 -3.556579351425170898e-01 -6.249997019767761230e-01 2.530314028263092041e-01 -3.521914780139923096e-02 -3.344654738903045654e-01 -1.076671838760375977e+00 1.450599133968353271e-01 -2.317216843366622925e-01 5.075162053108215332e-01 -7.156980689615011215e-03 4.793136194348335266e-02 2.144735604524612427e-01 7.743632793426513672e-01 1.018298640847206116e-01 5.854626297950744629e-01 -5.039526224136352539e-01 -5.842506885528564453e-01 -4.493016600608825684e-01 -1.154171824455261230e+00 -4.365053772926330566e-02 -5.793461576104164124e-02 1.851991266012191772e-01 -3.030783236026763916e-01 -1.949632614850997925e-01 -1.073677614331245422e-01 4.769573509693145752e-01 -5.881389379501342773e-01 3.880897760391235352e-01 1.010416746139526367e+00 -1.052932262420654297e+00 3.380829393863677979e-01 8.770889639854431152e-01 2.654879391193389893e-01 -1.136296391487121582e+00 4.496474564075469971e-01 -4.316277205944061279e-01 4.542845785617828369e-01 -1.544219702482223511e-01 4.503945112228393555e-01 -6.161953806877136230e-01 4.241642355918884277e-01 2.453196197748184204e-01 -1.937444508075714111e-01 5.071682333946228027e-01 -3.911137282848358154e-01 -8.333765864372253418e-01 2.010462880134582520e-01 -3.622189760208129883e-01 4.117577373981475830e-01 -1.499482095241546631e-01 -5.224105715751647949e-01 6.422200202941894531e-01 -1.289627432823181152e+00 -5.547368526458740234e-01 -1.606215953826904297e+00 4.369301497936248779e-01 -1.284950733184814453e+00 2.713904678821563721e-01 4.096382111310958862e-02 6.360437273979187012e-01 5.653899312019348145e-01 3.752637207508087158e-01 -2.057667821645736694e-01 -5.843959450721740723e-01 -1.786080189049243927e-02 3.304037749767303467e-01 -5.993703603744506836e-01
